[{"generation": 1, "best_score": 5480, "best_weights": [-3.165954901465662, -1.9575775704046228, 0.24756431632237863, -0.6805498135788426, -2.0877085980195806]}, {"generation": 2, "best_score": 5560, "best_weights": [-3.165954901465662, -1.1801285142308073, -0.030239269595505602, -0.6805498135788426, -3.181750327928994]}, {"generation": 3, "best_score": 6580, "best_weights": [-3.165954901465662, -1.9575775704046228, -2.0785535146478185, -1.2692938332153634, -0.43930015782964027]}, {"generation": 4, "best_score": 5840, "best_weights": [-3.165954901465662, -1.9575775704046228, -2.0785535146478185, -0.6805498135788426, -3.776631411899914]}, {"generation": 5, "best_score": 6880, "best_weights": [-3.165954901465662, -1.9575775704046228, -2.0785535146478185, -0.6805498135788426, -3.776631411899914]}, {"generation": 6, "best_score": 9000, "best_weights": [-3.165954901465662, -1.9575775704046228, -2.0785535146478185, -0.6805498135788426, -3.776631411899914]}, {"generation": 7, "best_score": 6820, "best_weights": [-3.7709136256266533, -1.1064159694852536, -2.0785535146478185, -0.322904405109099, -0.48534598208133906]}, {"generation": 8, "best_score": 7620, "best_weights": [-2.7482361535062894, -1.4611937744888743, -2.1470636344677105, -0.37489213345507855, -2.5977323699619097]}, {"generation": 9, "best_score": 7880, "best_weights": [-2.3592283554085314, -1.4611937744888743, -2.0785535146478185, -0.322904405109099, -0.48534598208133906]}, {"generation": 10, "best_score": 8636, "best_weights": [-3.235304451607018, -0.8069093082856791, -2.1470636344677105, -0.37489213345507855, -0.48534598208133906]}, {"generation": 11, "best_score": 8080, "best_weights": [-2.8001485565226387, -0.8069093082856791, -2.1470636344677105, -0.2775604956598161, -3.181750327928994]}, {"generation": 12, "best_score": 7740, "best_weights": [-2.7482361535062894, -1.4611937744888743, -1.8373258357620752, -0.2775604956598161, -0.4105002598552039]}, {"generation": 13, "best_score": 9600, "best_weights": [-2.978342098751126, -0.18207431347789704, -2.1470636344677105, -0.37489213345507855, -0.591749124726966]}, {"generation": 14, "best_score": 8820, "best_weights": [-2.7482361535062894, -2.3588854461064415, -2.1470636344677105, -0.37489213345507855, -2.343260486467737]}, {"generation": 15, "best_score": 8960, "best_weights": [-2.7482361535062894, -0.18207431347789704, -2.1470636344677105, -0.37489213345507855, -0.5919678696399164]}]